encog,BasicNetwork,java,3.4.0,1,1653369524957
[BASIC]
[BASIC:PARAMS]
[BASIC:NETWORK]
beginTraining=0
connectionLimit=0
contextTargetOffset=0,0,0
contextTargetSize=0,0,0
endTraining=2
hasContext=f
inputCount=6
layerCounts=2,101,7
layerFeedCounts=1,100,6
layerContextCount=0,0,0
layerIndex=0,2,103
output=0,1,0,0,0,0,0,0,0,0,0,0,0,0,0,0,0,0,0,0,0,0,0,0,0,0,0,0,0,0,0,0,0,0,0,0,0,0,0,0,0,0,0,0,0,0,0,0,0,0,0,0,0,0,0,0,0,0,0,0,0,0,0,0,0,0,0,0,0,0,0,0,0,0,0,0,0,0,0,0,0,0,0,0,0,0,0,0,0,0,0,0,0,0,0,0,0,0,0,0,0,0,1,0,0,0,0,0,0,1
outputCount=1
weightIndex=0,101,801
weights=-0.133101829,-0.3803350687,-0.8970214486,-0.7472933637,0.833036424,-0.8417862574,-0.6671270869,-0.7372850018,0.8000010246,-0.9062548531,-0.1347414705,0.9065295839,0.1066357588,-0.3415161481,0.3391296282,-0.5363969606,0.2683080462,0.3928824976,-0.165390913,-0.1688082254,0.079302983,-0.8123032345,-0.1841139622,0.4742853855,-0.0672493182,-0.8027252079,0.5951292607,0.2458918906,0.3521933394,0.3439836656,0.4432161766,0.9088191574,-0.2130662166,0.8419548016,-0.3469714596,0.4473176854,0.3798415895,-0.1541228621,-0.9314304587,-0.3122005386,0.3583117918,-0.9337150721,1.1107391773,-0.6483801084,0.8832955879,-0.2060274199,0.5943239999,-0.0831333495,-0.729612769,0.8318805526,0.5679315353,-0.3273010218,0.375027137,-1.1150514347,-1.0716277443,-0.0336088272,0.6052330044,0.5719811038,3.3263446579,0.2045676378,-0.1045903829,0.4095624756,0.3620621534,-0.1657706159,-0.0694852464,-0.3334214861,-0.5646674926,0.155449962,0.7170395081,-0.4728435513,0.8626550576,-0.5740976258,-1.00214419,0.4596147654,0.3893195702,0.8957529714,0.9054119736,-1.032532341,-0.8698235502,-0.7209658492,-0.7239925434,0.3069559141,0.0946047185,0.5285516883,0.0669944857,-1.2339652395,-0.7242656093,-0.8751106379,0.9191467718,0.7830490497,0.5943305273,-0.8038443215,-0.2860904102,-0.6409759299,-0.7942919713,-0.2589459374,0.1828795486,-0.6340132498,0.5015422373,0.6884143061,0.396398177,0.4789649524,-0.5262214921,-0.4679676385,0.4114384826,-0.5525797806,0.2946772209,-0.1583188837,0.5957870521,0.9578898539,-1.0080724089,0.3938675001,-0.8775854639,0.8178276173,-0.0793663178,0.8193554599,0.6249158158,0.2027961978,-0.1416536845,0.1383154795,-0.1264596266,-0.2455364863,-0.5579988543,0.412850973,0.5343945396,0.7853382783,-0.6745550528,-0.4810783353,-0.5340380119,0.925111413,0.7793714933,0.7455115452,0.6922591704,0.8468592161,-0.9574393863,0.3197373902,-0.2729394297,-0.9809892272,-0.6685252665,0.1644578784,0.0481040152,0.3357660226,-0.6878874779,-0.0616860749,0.8604214155,0.1338548532,-0.2590122502,0.4907332326,0.2800901521,0.3992924529,-0.8028398001,0.7511409959,-1.0278555387,0.6683220143,-0.290853235,-0.4898934083,0.2376003923,0.4827504265,-0.285500517,0.1132162532,-0.8017279733,0.9065395725,-0.8311225671,0.2122606888,-0.1512982474,0.0117195839,0.8642104751,0.5705065078,-0.1494108933,0.1828409776,-0.739739116,0.3333771283,0.8597658963,-0.3943414014,-0.2422493063,0.425677812,0.3715479507,-0.6513450514,-0.5188922496,0.368945029,-0.8672772584,-0.4459316581,0.1544607929,-0.9410228287,-0.6381600892,-0.5106111781,-0.376537431,-0.1424255993,0.8606451713,0.6508086787,0.1666771623,0.5400165395,-0.6941310029,0.4465486107,0.0991963907,-0.9117618796,0.2628826454,0.11783606,-0.0495140317,0.5076668795,0.8708772116,-0.3224364227,-0.0972062932,0.2803947379,-0.7148362574,0.7458479095,0.3238103412,0.729695829,-0.7524876414,-0.9014238673,0.6677489029,-0.0500648904,-0.8845821303,0.2310989931,0.5411375887,0.1817183068,-0.1185028181,-0.3203148482,-0.9229052116,-0.7475765471,-0.9155346667,0.9823421557,-0.3655028164,-0.5521198231,-0.8841530787,0.1607896665,-0.6426380848,0.9067900155,0.5593662766,-0.012239373,0.272419336,-0.8279156581,-0.2672423207,0.2884392886,-0.9765244501,-0.7790267556,0.6557798288,0.5029546406,-0.1615668349,-0.4165914365,0.118066783,-0.5713942824,0.1714548808,0.5210166039,-0.3474801404,0.3775423706,-0.8796669639,-0.3914252245,0.4190986887,-0.0650244551,-0.0310508382,-0.7943624677,-0.1885971232,0.2330551009,0.452997778,-0.384945044,-1.8727156692,-2.875694467,-1.8506580761,-7.1583999925,-6.8507527049,0.398217892,0.6351560901,0.5802504732,0.8148248878,0.068411311,-0.9158593378,-0.8163989823,0.1046066512,-0.7608475415,0.647582631,-0.2726719946,-0.5146730967,-0.4683844572,0.5336916568,-0.5088613739,0.6119996938,0.7453149102,-0.1086913821,-0.5698144853,0.4131155479,-0.4303278957,0.7112729674,-0.5847417545,0.8564799166,0.646251839,-0.7522574641,0.7250752827,-0.3829636401,0.2385347691,1.0121915259,0.5663233051,0.0720563902,1.1696842694,8.8472230697,-6.1172456815,-1.3902182158,0.468880126,-0.3336957663,1.0381992037,-0.0030632968,-0.350259602,-0.4947958431,-0.2765090045,0.954884915,-0.1612310326,0.7204819051,0.276978902,0.391233832,0.3525611403,0.6391408542,0.2961204516,-0.3482398931,0.9368040101,0.9981525661,-0.3592829162,-0.2342774969,0.400729914,0.3458739352,-0.7374123977,0.0832096336,0.1608514028,-0.2058670594,-0.8887055545,-0.3880367226,-0.1952392594,-0.616837934,-0.1758960728,-0.2285882866,-0.3128507386,0.2104093425,-0.9387914765,-0.5229309346,-1.7577149151,-0.1677778151,0.9697475549,0.6139987975,-0.9550623977,-0.788799191,0.9031547009,-0.5126429655,0.8599100124,-0.7953672551,-0.5766947099,0.7444091836,0.1455930397,0.3731084883,0.1319421726,-0.3691621769,-0.8090665268,-0.2665047038,0.7726963231,-0.0086447333,0.6575853328,-0.3014300024,0.3891415586,-0.7079496102,0.9300779166,-0.982817047,0.487432914,-0.3502842779,-0.2698936875,0.2430853964,-0.1588997163,-1.1437964246,-0.589644956,0.815294109,-0.107720289,0.4603844905,-0.095718406,0.4332407335,0.0393705526,-0.6870149122,0.0384820141,0.5946166339,-0.4786261081,0.8022289907,0.5880361734,0.1087384077,0.4854984375,-0.0105994073,0.8459155893,-0.1048315475,-0.0932782239,0.2705199717,0.6472304132,-0.166344487,-0.3632346696,-0.4359511565,-0.7726879733,0.4392441335,0.9302307337,0.7431854234,0.1413653867,0.1592950072,0.7511503002,-5.3896463178,-1.8332378821,-1.2848750984,-0.6176757573,7.1045969182,-0.6650801828,0.1489457041,0.4778913422,0.2761362472,-1.0035904696,0.2698917444,-0.51608199,-0.7932688259,-0.2966459964,0.8436546613,1.0560857446,0.1434333328,0.2950940798,-1.1046226704,0.0514402698,-0.9648692792,0.659567476,0.2753825803,0.4284417377,-0.1308517728,0.1429447662,-0.7855967963,0.0728321522,-0.7363705105,-0.2343676314,-0.3604928218,0.3653392459,0.0152365134,-0.3255677589,-0.2370821435,0.3431738177,-0.7638118479,-0.9402949127,0.8311692698,0.5238319245,-0.6745896229,-0.859130929,-0.9566989066,-0.0105258072,-0.9238157211,0.0190552757,-0.2087380928,0.7323359541,0.5015332924,0.6381214319,0.7101498733,-0.0458343997,-0.7237783785,-0.1462308489,0.0995769435,0.2650790611,0.5345247753,-0.5477556408,0.1154128554,-0.0005914206,-0.226409308,-1.0112894453,-0.8128599951,-0.0647481971,0.1036599133,-0.2943361519,-0.2993171069,0.7876596446,0.0931151047,0.2862516488,0.6311583997,-0.2251840727,0.2504612144,0.5104432133,-0.4949617426,0.778385465,0.7940033022,0.8349134988,-0.048886477,0.3910230772,0.6598239927,-0.0943034161,-0.2860967239,0.2967560308,0.6920095583,0.1945965788,-0.3897063525,0.9099387282,0.5416478471,0.3332669931,0.2738992757,-0.1762851241,1.0902878181,0.5043614156,-0.4483646688,0.0171845309,-0.2184401797,-0.3981302242,0.3920665483,0.3142252785,-0.4095958751,-0.6911386574,-0.1664412903,-0.9550182276,-0.1176172045,0.3053817373,0.1554942955,0.1472359162,0.5597439304,-0.3158852198,0.7354940849,0.5913106267,-0.3795951699,0.2399420187,-0.0912906064,0.3575568038,3.4492804622,-0.9940942031,0.3087044263,0.3173515333,0.2597845299,-0.7345880991,-0.1226998308,-0.8556292279,-0.7821652023,-0.2925808096,0.2614035213,-0.3239184791,-0.120344414,-0.5282944727,-0.0722188215,-0.320816765,3.0299215712,-4.0745830752,-3.8854232975,-10.395572246,6.4751675443,-3.3913110896,-5.8773169877,-0.0077281758,0.7103156638,-0.3997560481,-0.6863728421,-0.8178783202,0.4806935277,-0.6384636281,0.120724003,-0.2938990844,0.0405454015,0.0999855813,0.7750745427,-0.2700560184,0.3779541229,0.9241780432,-0.8265949915,-0.9364651273,-0.9038072418,-0.3391998916,0.2772768827,0.3285177239,-0.8248467515,0.2743945241,0.8091848845,0.137526039,0.0788109311,-0.6704401149,0.5148947855,0.3414349353,0.3145333211,-0.2877522896,-0.5357860737,-0.3143971969,0.5175680171,-0.7914269601,-0.451819434,0.3812427279,-0.9529554597,-0.9348982759,0.2192960994,0.3473130424,0.6469468349,-0.2205960721,-0.3299362986,0.2838291035,0.6326441426,-0.0028544201,-0.1200792091,0.0112020936,0.0568250343,-0.3621318612,-0.5856688952,-0.1345461362,-0.5805731012,1.2493652756,0.6585004681,-0.905124881,-0.0451069308,0.7457755698,-0.4211165657,-0.3853733094,-0.7644991034,0.2738969814,-0.8577822658,-0.9969871601,-0.9381189537,-0.1785184331,-0.2405570095,1.6574736049,0.6862875921,-0.5637794557,0.6917987334,-0.7505211726,-0.0312583506,-1.0084196963,1.2173984961,0.4874731914,-0.3231823183,-0.8361526433,0.6384966946,0.4243292833,-0.1923388965,-0.767191889,-0.126232106,0.5571092681,0.8046008432,0.7905610317,-0.9543456517,0.8381699996,0.3971782786,0.7310911007,-0.5133177906,-0.7554960165,-0.3436527148,0.5533401037,-0.4548189638,-0.330767867,0.0549310895,-0.1535733209,0.430564108,0.9730102785,-0.4001908973,-0.7544245164,-0.3784000426,0.8518753622,0.7594830902,0.8747277985,-1.011021914,-0.7841289985,0.7583313447,0.5658052924,0.6171880876,0.3732221158,0.6937568792,0.6385473255,-0.6673915512,-0.6104256707,0.3776342948,-0.7089487081,0.3581963524,-0.6073231254,0.4028493505,0.3295575847,-1.0658493894,-0.2971512071,0.7344854307,0.7704218877,-0.0213384344,-0.7888925617,0.344920128,0.6619036097,0.9346852455,0.3873896583,-0.4857502935,-0.7731345698,-0.4851379394,0.9285826435,0.0068376821,0.6797110677,-0.8539968026,0.328348242,-0.2224027935,-0.0028118513,0.7304257577,0.1988567668,0.6436479982,0.9384842732,-0.3037727074,-0.9567242257,-0.5167428977,0.1826372663,-0.0746719362,0.0045880293,-0.4297499526,-0.0959368375,-0.2005174648,0.1421136402,-0.5165676927,0.2477849345,-0.3032074369,0.5665640081,0.7513637933,0.9443226277,0.5014597047,-0.5705808715,-0.2349338997,0.1081746083,-0.507089311,0.1932061288,-0.658119947,0.0253244627,-0.0947849764,0.8908533101,0.5513072107,0.8882462741,0.6120898528,-0.2891348224,-0.1974125027,0.3096868917,0.5580176603,0.5956557829,0.5598478397,-0.9020268266,-0.693656631,-0.107772839,-0.6380879037,0.8343576929,0.2296869472,0.5888886292,0.7823133995,-1.8861917345,0.4252024452,0.0974741477,-0.8711362382,-0.1839378504,-0.9635849081,-0.2418206884,0.6174491995,-0.0923273461,0.3462134671,0.5624064149,-0.5429530097,0.388769549,0.6328019142,-0.2360741255,0.6743242026,0.7418545443,0.258941568,0.1984716916,-0.5788972926,-0.5577052847,0.5049728407,-0.9353904565,-0.0787353432,0.9164575875,0.3412259708,0.0786886507,-0.9019190352,-0.1096858916,-0.4913958229,-0.3864758327,-0.214352516,0.3023435428,-0.62992796,-0.191208198,-0.930970892,0.3655520354,-1.0343551579,0.2925335998,1.737607998,1.1604567877,0.3658249237,0.005955076,-0.4234183767,0.5388286539,0.4325129851,-0.2124497856,-0.1404624759,-0.7449144228,0.2074653905,-0.6497733703,0.7103762734,-0.1411531612,0.2367172737,-0.6911230811,0.605454848,-0.1571775684,0.0867509681,-0.4607515724,0.5300713537,-0.8944777028,0.3647971901,0.6383041462,-0.0300863746,-0.2634800202,0.8261259431,-0.4874968018,-1.0725533549,-0.325613209,-0.1104532814,-0.6243863808,-0.3085225539,-0.3153510736,0.0902507564,-0.173065043,-0.901642619
biasActivation=1,1,1
[BASIC:ACTIVATION]
"org.encog.engine.network.activation.ActivationSigmoid"
"org.encog.engine.network.activation.ActivationSigmoid"
"org.encog.engine.network.activation.ActivationLinear"
