encog,BasicNetwork,java,3.4.0,1,1658044277853
[BASIC]
[BASIC:PARAMS]
[BASIC:NETWORK]
beginTraining=0
connectionLimit=0
contextTargetOffset=0,0,0
contextTargetSize=0,0,0
endTraining=2
hasContext=f
inputCount=6
layerCounts=2,101,7
layerFeedCounts=1,100,6
layerContextCount=0,0,0
layerIndex=0,2,103
output=0,1,0,0,0,0,0,0,0,0,0,0,0,0,0,0,0,0,0,0,0,0,0,0,0,0,0,0,0,0,0,0,0,0,0,0,0,0,0,0,0,0,0,0,0,0,0,0,0,0,0,0,0,0,0,0,0,0,0,0,0,0,0,0,0,0,0,0,0,0,0,0,0,0,0,0,0,0,0,0,0,0,0,0,0,0,0,0,0,0,0,0,0,0,0,0,0,0,0,0,0,0,1,0,0,0,0,0,0,1
outputCount=1
weightIndex=0,101,801
weights=-0.7605170192,-0.5373909527,0.5652763136,-0.7238389472,0.4767725261,0.2867694753,-0.2265084255,-0.2251116568,0.0643102295,-0.7325552434,0.6783322793,-0.1569997272,0.6094181769,-0.2259355965,-0.8568822492,-0.3225918231,-0.86284562,0.3909717545,0.8813364074,0.8874721666,0.0331866866,-0.5615922992,0.1963442212,0.496558191,0.7922503588,0.6110554772,0.3989421874,-0.4749122135,0.531755747,0.0774515504,0.758904703,0.1203849371,0.8944251223,-0.9784439758,-0.458148788,0.677410548,-0.4575858499,0.2049811528,-0.7309831329,0.6244732987,0.4124605253,0.7794356019,0.811406381,-0.1961113553,-0.8816808243,-0.6397153532,0.9477296794,-0.9355357952,-0.2968854707,0.4582936835,-0.929231334,-0.6631320529,-0.8740411119,-0.1129039193,0.1160161395,-0.1507802815,0.434287539,-0.1139137423,0.6334251619,-0.8645210049,-0.9530509378,0.4824835447,-0.2215225146,-0.9441080709,0.3968283477,0.1253640729,-0.2077591937,0.0732214733,0.4663540379,0.6855548277,-0.4386985468,-0.3598001372,0.2668054663,-0.7832295369,0.3154113841,0.7969739392,-0.0121957463,-0.9869354429,-0.2068960889,-0.9493390106,0.2877476693,0.178958744,0.0537385108,0.5436495399,0.4538346827,-0.7539586539,-0.9933660023,0.9230047868,-0.7962935819,0.7083442651,0.26129831,-0.0056159687,-0.075885923,-0.0786362094,-0.5114180274,0.7156085854,-0.7858749937,-0.0761828703,0.6134508677,0.6165537511,-0.4563811782,0.0297617223,0.2483350493,-0.1721000709,-0.8073259321,0.2980946743,0.746615467,-0.6998014921,-0.3058706473,0.6509118833,-1.1062757817,-0.029434586,-0.397139734,-0.7486593928,0.4996913205,-1.1046704469,0.7239887363,-0.4499094753,0.3132940223,0.6103931165,-0.0843023598,-0.5114335694,0.4762618414,-0.6346663602,0.3003757034,-0.554434452,-0.3440444567,0.0088317938,-0.3123841446,-0.1510336889,-1.0598035152,-0.5554290675,0.2565980064,-0.7544196717,0.567618682,-0.426405162,0.6250984666,-0.7026694904,-0.656927173,-0.1243964462,-0.4826391244,-0.8786160141,0.5856886636,0.4711077453,0.2623537058,0.1362803051,-0.6315042099,-0.4456789194,0.8559143942,-0.2802596255,-0.2863294203,0.8699395525,0.5055732781,0.7142943488,0.0309019512,-0.7969537145,0.2873498009,0.0037814032,-0.1808269118,0.6466665971,-0.2683546819,0.9183384695,0.840455938,0.163540606,0.799799906,-0.4339152127,0.1057745446,-0.0240897877,0.3909201682,0.4862262726,-0.0993110222,-1.1224867608,0.6069296476,0.9495093429,-0.6122234426,-0.4852104394,0.7113400193,0.2921428118,0.3268702709,-0.4236662373,-0.7764836115,0.5582508745,0.0910338409,-0.8792015489,0.4547411451,-2.3179165897,-4.8907967904,1.8666535413,-0.098402258,0.7684749996,-1.6853662647,-4.1737964053,0.379396913,0.0493142408,0.2720835725,0.8100011988,-0.09374423,0.281398698,-0.3706125014,0.9184202496,0.2858244969,0.2667288701,-0.2737059494,-0.2496853019,0.8199157965,0.0729517585,0.0441666266,0.2257001572,-0.667225806,0.8949152066,-0.2188934749,-0.7883050808,-0.117086835,0.9323105531,-0.5807192609,-0.8075993187,0.3002373108,0.0942450094,0.7655475289,0.0469716249,0.8027898025,-1.0955684778,-0.3586926294,-0.6054581091,0.0334239676,0.2715057971,-0.4263544711,0.3962476624,-0.3663764884,-0.740829115,-0.2074648018,-0.5885603363,-0.5938213318,0.9635138614,0.2371138265,-0.1120690085,1.0179664011,0.848858508,0.7369676206,0.7199613888,-0.55101937,0.8006378629,-0.4335907302,0.6477061892,-0.0278075949,-0.3830879986,0.5178815666,-0.9754132176,0.6195619388,-0.8333668042,0.5423238346,0.3495891804,0.6407621742,-0.6448290633,-0.0211502282,0.4383678681,0.1148476337,1.1374982456,0.3937248479,-0.2969985055,0.7318439042,-0.8068674702,-0.8213611675,0.0717243829,0.286413241,0.5475533747,-0.2409619088,0.4717823306,-0.6723701027,0.4831168852,-0.3217981229,-0.1310171097,0.430608284,0.2350473332,0.406919283,0.600383742,-0.0546856481,-0.3285543027,0.4305727215,0.7526619897,-0.2035397971,-0.2881951618,0.4536541147,0.8429579775,-0.2192911128,1.0616670567,-0.6532479939,-0.2529667647,0.8669798584,0.4277520254,1.098335097,1.0255325009,-0.1240329185,0.4046472436,-0.781221681,-0.0097653972,0.9180836286,-0.2621024963,0.3432598315,-0.7434616433,-0.7773083724,-0.8449355761,-0.3338070333,-0.6637658547,0.8297214495,-0.0299116314,1.3254591014,0.9154179178,1.3621789987,-0.8984222066,0.6694856724,0.8251217994,-1.0343886258,0.2486689417,-0.3270501104,-0.8830803573,0.1823340164,-0.5640803019,0.8581401166,-0.1501649913,-0.7492782768,-0.4303230992,-0.755224829,0.2578922678,-0.2931177464,0.5664169302,-0.8185307072,-0.6946419628,0.1941107513,0.2671071786,0.5188968933,-0.4945415182,-0.7765098162,0.2124116558,-0.4710686854,-0.8487851259,0.5679818213,-0.5477265428,-0.1559171359,-0.0204091918,-0.6276019203,-0.0473039996,-0.6218905574,0.7358277309,-0.0104181738,-0.1318087556,-0.3250788779,0.6228100074,0.6626918714,-0.2027849611,-0.798940049,0.7676809876,0.7238235503,1.0960732983,-0.2427307916,0.5969494247,-0.9781853237,0.7715010096,-0.8134894649,0.9465135759,0.0602196375,0.066969481,0.9504966045,0.007160866,-0.3063864675,0.5574363094,0.713823939,-0.4688980379,-0.0929814161,0.2189490843,-0.0512528785,0.6994658921,0.9631181526,0.7009187915,-0.8783106181,-0.1239338375,-0.7477080969,-0.0967393202,-0.5984020647,0.482514882,0.5832935169,0.4148196961,-1.0699472305,0.736428817,-0.140842043,-0.3914161701,-0.1107360366,0.0515569005,0.8126795365,-0.346700128,-0.7681274985,-0.8468734166,-0.2451467022,-0.0414727853,-0.2727139155,-0.2066082659,0.0298016964,0.9135572352,0.9342622654,-0.6010338296,-1.0367505984,-0.6846941316,-0.2231793527,0.5964893105,0.8100840657,0.8782651617,0.3106175131,0.6132259915,-0.8017183169,0.242234209,0.5775128137,-0.9519550609,-0.9042813986,0.378969861,0.5468704015,-0.638245722,-0.3528058005,-0.6205683759,0.7573891069,0.0137861697,-0.8622497139,0.3724409904,0.8694816794,-1.0741258052,-0.1952491168,1.0463992971,0.5989561845,1.0379261167,-0.5699700579,-0.0142414456,-0.4167367171,0.0061695867,0.7205512433,-0.53838271,0.6382211586,1.0787256374,-0.0277754111,0.692933014,0.9009948533,0.1842256933,0.665463087,0.3887944931,0.0380953487,0.7171851351,-1.3294447653,-0.2296650074,1.0106528107,0.2312036726,0.070203885,0.5348740159,-0.9271917708,-0.1616117214,-0.8433805282,0.5476715372,-0.4435913913,0.0392724003,-0.5102289056,-0.3934218497,-0.649853407,0.980620568,0.1159370166,0.5115734085,-0.5653904189,0.1505746635,-0.6057570055,0.7092751065,1.0588518567,-0.306735131,-0.4761040013,0.8553615498,-0.6899043463,0.8582187304,1.055909163,-0.0976675814,-0.809119865,0.3885950987,0.3727688691,-0.4951497379,0.0745802702,-1.5034119524,-0.2872861753,-0.2606469888,0.320609643,-0.5681538303,0.0218620287,0.8348182412,0.4483926616,-0.6693148919,-0.4862620304,-0.180498993,-0.8223244762,-1.9204390024,0.509161754,0.2631361125,-0.3224560943,-0.2006748052,0.3746111055,-0.2820015509,-0.4438562197,-0.9113626583,0.6792137577,0.3358597836,0.4417880165,0.0315503751,-0.0826373894,0.8626145696,0.3941412651,0.7105729472,0.2189702917,0.3925202113,0.5881337398,1.101733727,-0.288707454,0.6188905648,-0.8165337579,0.2700912542,0.4030743888,0.6265971015,0.694515786,0.9454354695,0.6065125464,0.5357488621,0.5355394047,0.234782006,-0.2507541443,-0.5187940579,0.6670418251,0.5334613105,-0.6188013504,0.3556808041,-0.787741667,0.8337855027,-0.256048905,0.7940849352,0.8085991154,-0.5522380238,0.5296127133,-1.167924362,0.3801877142,-0.5250432251,-0.0718400872,-0.6507838965,0.590122193,0.6003469196,0.1015512048,0.5476087494,-0.7334267669,0.2487669133,-0.7575534657,5.2065110824,-0.5702305092,-0.1187274799,0.9784201286,0.334231679,0.706268817,-0.9655795533,-1.0065865717,-0.6596965576,0.3927187303,0.899656881,-0.1978710444,-0.6448839052,-0.1822989261,0.4745998769,-0.7689097586,-0.5571725332,0.9155177161,-0.0718959314,0.3750533046,-0.8765301263,-0.4924610561,27.3787261853,0.8982203667,-0.0026522472,0.4723680975,-0.0737317719,-0.6981951702,0.2633125041,-1.1482618451,0.3193239387,-0.635388121,0.4058160468,0.2064422421,-0.6316508139,0.5504396325,0.0520671771,-0.5436170013,-0.9028013821,0.3112806075,0.2120471883,-0.0497645426,-0.2235152908,0.1740088399,0.2520729149,0.1709940215,-0.7162854064,0.5161404551,-0.8388858781,1.3702967171,-0.343761027,-0.8456938096,0.1603926802,-0.7173109641,0.5807202591,0.633849229,-0.5552054322,0.4732673701,0.0311086351,-0.1100820235,-0.6826040534,0.504947633,-0.3008629905,0.7369895565,0.1861805711,-0.7202198299,-0.1859651899,-0.2653843228,-0.7539044623,0.600965763,0.4050803285,-0.1676518926,-0.5531544041,0.6015798287,-0.5567025504,-0.072763777,0.0864393507,-0.4204003977,-0.2675995999,-0.0187025347,-0.8576871471,0.243922778,0.5242234802,0.3315309486,1.0571295176,-0.7190010447,0.681835222,0.7228198847,-0.7623556911,-0.8695708695,0.3398142188,-0.3916890246,0.247889493,0.5347877131,-0.2445222319,-0.7891098359,0.8065384322,0.5284996007,-0.5395583951,-0.1392876836,-0.2071975169,0.9423791275,-0.278818629,-0.8902922546,-0.1884088385,0.5591018997,-0.4984442196,0.470864191,0.5546005229,0.844806405,0.8007920788,-0.577417354,0.8298738753,0.4192219012,-0.2034572271,-0.8133402888,0.4946058182,-0.4032400045,-0.2407189862,0.2488753331,-0.1668246803,-0.5425148768,-0.6492763869,0.3790963469,-0.3024354741,-0.0455379005,0.5693523871,-0.3367382309,1.253303697,0.1841039518,0.7409467705,-0.2429698871,0.7074504061,0.7103577678,-0.8530487917,0.5000288217,0.7682931503,-0.3711269307,-0.3158520907,-0.7290304427,-0.9062290469,0.1533077936,0.0515361598,-0.1152256193,-0.061834496,0.015889014,-0.7507080047,0.5019562369,0.5932975128,-0.6861717838,-0.1644107626,-0.4381022907,-0.6516151791,-0.1701127021,1.0179182841,-0.6156170513,0.4126779166,0.8824700326,-0.3187615226,0.0872081962,-0.478847347,-0.8716119736,-0.771242949,0.1372550022,-0.8885869763,0.3720974112,0.7000842703,0.0443768121,-0.7254570527,-0.3759282922,0.3067260401,0.9786475093,-0.9476117948,1.0742257748,0.301352754,-0.1505590899,-0.2833731865,-0.4142390408,0.4840950171,0.677856311,-0.7756885028,-0.8773780629,-0.084001197,-0.2938974624,0.4532926306,-0.3246604532,-0.2942553349,-0.7496472482,0.5975300594,-0.4979202255,-0.8274571469,-0.3876036155,0.6665923941,-0.3122587323,-0.6678428776,0.7892667923,0.6842192719,0.4997627263,-0.3468152569,-0.1613203002,-0.2369978549,0.8290297371,-0.1775954648,-0.2858557467,-0.6736848641,0.3455030332,0.5573776523,-0.4169024442,0.3950638456,-0.2294496653,-0.4115504879,0.8589612654,-0.4620258868,0.7326600523,0.7983216163,0.2086937262,-0.1617650524,-1.3110621716,0.6426564016,0.4203099071,0.864483483,0.5453547683,-0.9872249649,-0.9009873044,-0.5698745563,-0.7253647522,0.6159944092,0.9227178328,0.4492495966,-0.440414697,-0.9974330522,-0.3034921775,1.0360881951,-0.2135543679,0.9708014273,0.0901926922,-0.5157787717,-0.6854628627,0.0881407415,0.7005334102,-0.1994222229,0.5434389646,-0.4394166744,0.865989416,0.4925978279,-0.6735229643,0.3026665809,-0.7608523877,-0.274956193,0.8886723538,-0.6186709962,0.5724101588
biasActivation=1,1,1
[BASIC:ACTIVATION]
"org.encog.engine.network.activation.ActivationSigmoid"
"org.encog.engine.network.activation.ActivationSigmoid"
"org.encog.engine.network.activation.ActivationLinear"
