encog,BasicNetwork,java,3.4.0,1,1658044281894
[BASIC]
[BASIC:PARAMS]
[BASIC:NETWORK]
beginTraining=0
connectionLimit=0
contextTargetOffset=0,0,0
contextTargetSize=0,0,0
endTraining=2
hasContext=f
inputCount=6
layerCounts=2,101,7
layerFeedCounts=1,100,6
layerContextCount=0,0,0
layerIndex=0,2,103
output=0,1,0,0,0,0,0,0,0,0,0,0,0,0,0,0,0,0,0,0,0,0,0,0,0,0,0,0,0,0,0,0,0,0,0,0,0,0,0,0,0,0,0,0,0,0,0,0,0,0,0,0,0,0,0,0,0,0,0,0,0,0,0,0,0,0,0,0,0,0,0,0,0,0,0,0,0,0,0,0,0,0,0,0,0,0,0,0,0,0,0,0,0,0,0,0,0,0,0,0,0,0,1,0,0,0,0,0,0,1
outputCount=1
weightIndex=0,101,801
weights=0.5571900277,-0.3955651306,0.6292113778,0.5885269932,0.1027026104,-0.3082770679,-0.7374604447,0.9631937893,-0.5828060092,0.4048996911,-0.1671537001,0.3813009506,0.4226405316,-0.6690400837,0.9610699901,0.4045893099,0.3797444761,0.9562835301,-0.7467211768,0.6160304527,-0.4500464179,0.5293419305,-0.7673588201,0.1536311119,-0.4205244274,0.3795813308,-0.7517722857,-0.2001444878,0.4608423791,0.432977301,-0.7861288707,-0.4942978767,-0.4427056184,-0.1475152102,0.436881271,-0.2207949893,0.9821765193,-0.9367583869,-0.3530157176,-0.4937626922,-0.8233039417,-0.9881232876,0.1199644497,0.0303784441,-0.9671041027,0.7607668549,-0.7060751907,0.3254800184,0.6572948729,0.0953919259,0.3599554981,0.6231072567,0.3905852869,0.0929245061,0.3663568301,0.3337314042,-0.9521111353,-0.3748754712,-0.0187348991,-0.2241468144,0.2911159616,0.4698229669,0.3520731698,-0.1613878421,-0.4812177483,-0.3602885388,-0.2888632172,-0.0733651217,0.5713958368,0.1171703372,0.2286265793,0.985987522,-0.5587903575,0.4299433238,-0.200117827,0.6087081633,0.9415001721,-0.1942078046,0.2561148307,0.8187386436,-0.5208249842,-0.7246621064,-0.9377999779,-0.5962125303,-0.4148902028,0.125527172,-0.1362394429,-0.5663827764,-0.333798608,-0.6725464544,-0.065579974,-0.2756781121,-0.8521935068,-0.4447417911,0.3581454934,0.6516363469,-0.7482935732,-0.5494279494,-0.5474978934,0.945119135,0.9846143191,-0.3435291773,-0.6030120662,-0.7893943859,-0.3173730639,-0.7085408025,0.6095375803,-0.1628229166,0.5901477588,0.2715806757,0.8813239707,-0.0510117834,-0.421373466,-0.8975103244,-0.2823894984,-0.7007897659,-0.1744103952,-0.8378039057,0.7289096597,0.596073137,-0.5177361228,0.7116394237,-0.2410553671,-0.7884552037,0.793056845,-0.3274957329,0.1218297724,-0.1858385593,0.1696683057,0.4141302195,-0.0868648122,-0.4076638226,0.6471623081,-0.7464515115,0.4399532695,-0.7929428177,0.640696559,-0.4095899877,-0.6379029118,0.5904536476,0.1764816611,0.6124652069,0.8751747449,-0.5093317524,-0.3401171156,0.1220496778,-0.3457850192,0.8694004627,-0.9002559585,-0.3793831077,0.8019027552,0.4249457707,0.301424317,-0.0851716704,0.5095141375,0.209077229,0.8583606749,-0.7075208017,-0.0374391965,-0.6727538795,0.7451357003,0.0711450056,0.4047154625,0.932896202,-0.6878117637,0.4877917753,0.2355649668,-0.720870529,-0.4452526485,-0.3519017287,-0.1934985475,-1.1348808066,-0.7884770293,-0.1119539738,-0.7835538523,-0.4172904387,0.8871976189,0.4310823228,0.9876871147,-0.1389462947,-0.1687820273,-0.9207880629,-0.5859473702,-0.0255419187,0.0274091192,-0.0361966313,-0.6245173758,-0.3602535896,0.2158389349,-0.7392276754,0.5674782312,-0.9103797756,0.7924852854,0.7680428495,0.2497406293,0.0771245211,0.016588111,0.8203478234,0.4812488481,0.6059209102,0.2140089826,-0.0550120656,-0.5823357839,-0.2333896669,-0.2774218771,-0.3566875058,-0.4170874796,0.264288767,0.0787680245,-0.7933496656,0.8961545329,0.6443970783,-0.7194194183,-0.1786230229,0.5668090794,0.1483408668,0.2455935679,0.4774141839,0.5490953568,-0.3437496732,-0.066555057,-0.5150029461,-0.6077014964,-0.3881946599,-0.3783385183,0.4593912783,0.9799996151,0.0670200865,-0.0851343881,0.7014856561,-0.2190339358,-0.5959169215,0.323771476,-0.9246529552,-0.7648574253,0.0979951108,-0.1871595826,0.1679732121,0.3411129534,-0.1274759429,0.3457557282,0.0466662605,-0.1325907468,-0.4319504666,-1.1301533651,-0.0537370312,-0.2945087569,0.8378625368,0.5479777807,0.3255576155,-0.0555749603,0.5458454656,0.2734412718,-0.0820616749,0.8491722362,-0.5217412396,0.3962317038,-0.1701497008,-0.118564844,-0.4804350689,-0.462855682,-0.3705795,-0.2575682245,-0.4315811236,0.7096060829,0.853950727,0.5726786725,1.0971140588,-0.1372490263,-0.1169575612,0.0782645062,0.6454336928,0.939257415,0.3527171841,-0.4233546484,0.0876108509,-0.4975197076,0.9240759498,-0.7578237054,0.9814172987,-0.0977366978,0.0958028317,-0.9500166067,-0.4018026687,0.803521967,-0.0267302086,-1.0495766557,0.850112893,0.8503138255,-0.9257390617,-0.068816457,0.6962825109,0.2064550843,-0.3405561478,-0.5649929038,-0.5599554948,0.983958557,0.4155603712,0.0499945739,0.565228342,-0.2238175071,0.0075794798,-0.1806994756,-0.0422686355,0.5858354857,-0.4437690966,-0.4149919437,-0.7661792605,0.1256947648,-0.134370736,0.3744274278,-0.2350191922,0.7546713258,-0.2655859889,-0.8706497629,-0.101980654,-0.7128129765,-0.1817329042,-0.1713587288,0.5786336154,-0.0245948295,-0.3530276385,0.4792813865,-0.1563488842,0.5185833963,-0.0804645163,-1.0349033227,0.336786781,-0.0496110169,0.1614229321,0.2262610363,0.1741830396,-0.7194340424,-0.0700347981,0.6226737024,0.0010427074,-0.7840614498,0.4708982471,-0.6415790538,0.425536315,0.1286650691,0.3582523405,-0.9402567352,-1.0078196481,0.2810566914,0.636431314,-0.8174976383,-0.8828474474,-0.8438602265,0.8044270105,0.7268616911,-0.224390503,-0.0642356367,0.5414045971,-0.4480715977,-0.6026652504,0.0184169669,-0.3989159494,-0.280155696,0.6835123248,0.1536258785,-0.2778166425,0.6003552764,0.8641574761,-0.2427645824,0.2772822977,0.8979259314,0.433329231,-0.7901735566,1.1119381411,0.4389231084,-0.5095925079,0.0042668772,-0.3527579343,0.0027230035,-0.8432737604,-0.0135343842,0.1772560924,-0.1636685939,-0.6813723632,-0.9361220715,-0.7679979822,-0.8552192036,0.4227428517,0.8386979118,0.2970111452,-0.651846157,-0.5356035151,0.3554273636,-0.9043475524,0.1457653446,0.4936838064,-0.563802085,-0.3769535459,0.4651215401,1.0644301667,0.892651352,-0.3059559293,-0.8797519195,0.8299570178,0.9734417255,0.0600835559,-0.1424923925,0.059366702,-1.4020618006,1.0692630929,0.0363997835,1.0163855523,-0.4021361145,-0.209240213,0.146045073,0.2342252357,-0.2413483551,-0.474535524,0.0632824542,-0.6269467542,0.9188543922,0.9458875832,-0.2253439809,-0.3970502418,-0.8649371666,0.1093443627,-0.0973477195,-0.1654831676,-0.0747001537,-0.4878195862,0.3082448473,-0.9321057522,-0.8884205828,-0.3783164345,0.9584308857,-0.5132463846,-0.5075480182,-0.3994047485,0.8785530974,-0.6872677822,0.4341036017,4.9294517142,2.7487852586,-9.4221792309,1.1158783305,1.3664850856,-0.6157863816,-4.9041505964,0.4373398067,0.174559597,-0.0208170933,-0.618263264,-0.3489781919,0.3042868243,-0.0507131274,-0.7633275367,0.7725443615,-0.4622565292,0.3269720151,-0.4899238656,1.0341580742,-0.9539032174,-0.7126415781,-0.6503098187,-0.7005795079,-0.0223516945,0.3896730192,-0.797027851,0.0701106464,4.3935852686,2.2556841869,-7.8435743559,-1.597790263,-1.0892814419,1.6624920705,-4.4451427443,0.8738651619,0.0900709288,-0.9777922783,-0.244668699,0.1247498859,-0.2706328412,0.5807905382,-0.1291261427,-0.3774673512,-0.0426675251,1.01834819,-0.7990686632,-0.270134887,-0.7951921043,1.0924341277,-0.3980901472,-0.2647018623,-0.2410378039,-0.408385592,0.2497655764,-0.1177034638,-1.0043112338,-0.3576022388,0.5344837581,-1.017555401,0.0032877685,0.8053786372,0.3359211178,0.1877105518,-0.1671468689,-0.8647478065,-0.5490048257,-0.4261660468,-0.9594938486,-0.5330179492,-0.6080950154,-0.3546219237,-0.2186747495,0.6510362822,-0.2176226628,-0.5094592907,-0.1353705665,-0.6025146918,-0.6236195889,0.4685794426,-0.4126550224,0.6905915848,0.674226063,-0.3576777348,-0.4359613567,0.3036317424,-0.8391844223,0.271392658,0.3271036721,0.834616966,-0.1568960911,0.0559763774,1.0972753782,-0.1659333613,0.2438001013,0.6243847833,0.1226489985,0.6564786398,-0.0191364482,0.2438772583,-0.4097625752,0.2083313809,-0.0691559222,0.7165044068,0.0023090297,-0.3607854916,0.4742823194,0.4145791469,-0.9866439543,0.6966065231,-0.4954698963,0.6842978889,-0.773687438,0.4274555987,-0.3816074663,-0.7741852459,-0.6852354882,0.273513802,0.0796127003,0.0502299344,-0.5934871445,-0.3339875714,0.8742884459,-0.7766112053,-0.5656609931,0.2418742014,0.5158092157,0.0460135451,0.4360306538,0.4756928782,-0.4797454923,-0.1774478326,-0.4788209118,-0.4176613591,-0.9975390173,0.4163397009,0.648077449,-0.4449598435,-0.6833730329,0.8273233422,0.4215116011,0.2497481799,-0.7164633978,0.3784425423,-0.3126286476,-0.5630693075,0.777325212,-0.7483849872,-0.3659097215,0.778859449,-0.2700219441,-0.8865619072,-0.610448714,-0.3735226402,0.4954017101,0.0128844271,-0.5852726607,0.9462660184,-0.3620384556,0.7384963451,-0.5193494289,0.058798795,0.2019979449,0.5585648128,0.7471843914,0.0149735651,-0.8442537272,-0.2758799531,0.6328977446,-0.1727226621,-0.2044871938,0.6343229292,0.1154171391,0.2742039201,0.8867907319,0.5280004403,0.6264576975,0.1516442549,0.8407107195,0.6334384987,-0.5145421436,-0.317931176,0.6016266803,0.4832252252,0.9718176155,-0.1337277721,0.2163174114,-0.9389038116,0.8112661586,-0.0471229916,0.1147039503,-0.9761048954,0.7192054421,0.7264187648,0.2075397918,-0.7450571077,0.8343946924,0.4278861507,-1.0274282632,-0.1507745454,-0.1942532675,-0.42303587,0.4058477137,0.0337239048,-0.1404857725,1.102130886,0.4706909795,0.9808337589,-0.9708795734,0.5615268865,0.2518066576,0.2385248108,-0.0776469478,0.996814012,0.7132471733,-0.7668619907,0.3394674513,0.6994703011,-0.4403892572,0.6717920606,-0.3010648035,-0.0381114019,-0.4855397312,0.7886585575,-0.8399636717,0.5821137241,-0.8186976893,-0.2482668117,0.9968727039,0.0271287068,-0.1684299815,0.2172918056,-0.1689699644,0.0178732837,-0.8745041315,-0.3318456885,0.449020419,-0.2721342535,-0.0150060393,0.6331627905,0.8585512356,0.1232635198,0.81255683,-0.6971787336,-0.264406312,0.4324091708,0.4118111337,-0.6217220946,0.0294538558,0.9836005395,0.7840657618,0.6699115271,-0.3565560502,-1.0860849745,-0.5364124137,0.6874505489,-0.3551089674,-0.8657324161,-0.4211360289,-8.4685994822,-0.2057359378,1.5452223467,-0.6973737829,-0.579809702,0.3321432463,0.8156229643,-0.1905678139,-0.394503834,-0.4567086463,-0.1473391387,-0.3452214717,0.7097846889,-0.7824194222,-0.493427705,-1.0010424237,-0.0689772785,-0.9403771598,0.1665393176,-0.258193181,-0.3506201822,0.4471435002,-0.2158390113,-0.513909401,0.4415567667,0.9820275414,-0.7642212624,-0.3014667156,-0.643457965,0.4484942103,0.5858328554,0.8961427288,0.6402329224,0.6880338203,-0.2354653429,0.1972125886,0.3512056434,0.4642184363,0.2464512844,-0.7212830755,0.5572489493,0.1840267976,-0.5665606983,0.3726320976,-0.1157794019,-0.9573695356,-0.0824414724,0.100310246,0.5171883532,-0.2109047502,-0.2600528328,0.0742872792,-1.0465849271,0.3587578851,0.1883607587,-0.7648214228,0.7046991396,0.2177475425,0.9625474304,0.441482905,-0.9647998891,-1.077859672,-0.7032792078,0.8748155326,-0.5671983969,-0.0060747099,-0.4439935599,-0.522800893,-0.7788241388,-0.6537379329,0.4991816372,-0.1892613098,-1.0292254617,-0.4752409475,-0.4064392162,-0.8286547396,-0.5989481399,0.5732212356,-1.0494530583,1.0234431616,0.070179192,-0.4413812192,0.3691951311,0.0153170569,-0.0833083147,0.2880574793,0.7934396488,-0.1047067099,-0.3324793993,-0.8757236245,0.8174468379,0.11469536,0.4893590594,-0.3715156386,0.3620307122,-0.7297781211,0.5519930892,0.6633865122,0.9827279278,0.671509461,-0.7262026332,-0.501739135,0.6246115094,-0.0980668821,-0.4340685019
biasActivation=1,1,1
[BASIC:ACTIVATION]
"org.encog.engine.network.activation.ActivationSigmoid"
"org.encog.engine.network.activation.ActivationSigmoid"
"org.encog.engine.network.activation.ActivationLinear"
