encog,BasicNetwork,java,3.4.0,1,1655548756608
[BASIC]
[BASIC:PARAMS]
[BASIC:NETWORK]
beginTraining=0
connectionLimit=0
contextTargetOffset=0,0,0
contextTargetSize=0,0,0
endTraining=2
hasContext=f
inputCount=6
layerCounts=2,101,7
layerFeedCounts=1,100,6
layerContextCount=0,0,0
layerIndex=0,2,103
output=0,1,0,0,0,0,0,0,0,0,0,0,0,0,0,0,0,0,0,0,0,0,0,0,0,0,0,0,0,0,0,0,0,0,0,0,0,0,0,0,0,0,0,0,0,0,0,0,0,0,0,0,0,0,0,0,0,0,0,0,0,0,0,0,0,0,0,0,0,0,0,0,0,0,0,0,0,0,0,0,0,0,0,0,0,0,0,0,0,0,0,0,0,0,0,0,0,0,0,0,0,0,1,0,0,0,0,0,0,1
outputCount=1
weightIndex=0,101,801
weights=-1.000275712,0.7125400811,-0.3912640974,0.4533506735,0.8211623034,-0.9399085977,0.2778202771,-1.0830284513,-0.2288764859,-0.2493376042,0.4298144493,-0.1401748198,-0.1496580469,0.0518942112,-0.6262933228,-0.2963290849,0.735631723,-0.1312101261,0.3779549328,0.4016243468,-1.0084225414,0.1030713455,-0.0710157928,-0.8474587312,-0.5196065748,0.04152301,-0.3331680236,-0.4028577356,0.4831532775,-0.8160879094,-0.9398964177,0.7184094526,-0.6565696562,0.0479077114,0.0736694329,0.6751190907,-0.6397528073,-0.8412967724,0.1175826461,0.1162434634,0.7707769793,0.1241696542,-0.6520654945,0.0763239849,0.2359131435,-1.0665010532,0.2268691484,-0.5776319773,0.5573644554,0.5731170876,0.0871630331,2.3624255746,-1.1151185004,0.2107129454,0.2145664545,0.4920791843,0.8048908531,0.3629973305,-0.1260211597,-0.1979580225,0.1221370506,0.6370856926,-0.4044452705,0.3193351798,-0.5427157985,0.5084354894,0.4928858449,0.7418830189,0.4504000207,0.8033792014,-0.4733348995,0.5405567055,0.313302113,2.0967141096,-1.0587314665,1.1369442934,0.1411616906,-0.2383251478,0.5633880241,-0.7346312486,0.8148643553,0.8205042982,0.7266985507,-0.5801819314,-0.7357864591,-0.7957525205,-0.3496517231,0.0913000054,0.8472248907,0.547984409,-0.9982519104,0.3926148354,-0.8596341986,-1.0058797422,0.5762840302,-0.0219295579,-0.1528022072,-0.6752688514,0.62601702,0.2245494423,0.327000345,-0.6451379567,0.6196316222,0.6031179911,1.0025299627,-0.6721400679,-0.1951251802,-0.6380985001,-0.787162438,-0.3922906243,-0.1517319227,0.6870571617,0.470315242,-0.2898551059,-1.1267420468,-0.5166286039,0.3339380708,-0.9009484977,-0.6561649589,0.1452244621,-0.442262975,0.2543501504,-0.5596225325,0.3509263289,0.4899279144,-0.3939182564,0.6937804326,-0.820749996,-0.3422076214,0.2801871592,-0.838591307,-0.4117014578,0.0046476352,0.5515890399,0.1997117709,-0.4101465685,0.2273649349,0.9099668595,0.4290424434,0.4900392442,0.2185874126,-0.171605398,0.3726238977,0.5737924185,0.4309401925,-0.499083543,-1.3073750344,-1.0369126619,1.38651042,0.3265230755,-2.1820777038,-1.1767201853,0.2982391423,0.2847297495,0.2967900772,-0.8897233274,-1.138491429,1.0042343305,-0.7100034679,0.2363753791,-0.0939889494,-0.3451675819,-0.6770964836,0.1709955213,-0.6939748275,1.0383145188,0.4309606638,0.2440685976,-0.3255965694,0.3833206694,0.3961228505,-0.7988212346,0.231914056,-0.4345787323,-0.1030526636,0.7853588783,0.9563344776,-0.6924229006,0.7842918404,0.5649943255,-0.8069850858,0.0391442505,-2.4657890791,0.3654055492,-0.5740619639,0.3686430797,-0.4030578845,-0.8764669883,0.6865043079,0.5494651085,0.417329993,0.0601879906,-0.6294777958,-0.7734884358,2.4698432761,-2.9333583208,-0.2232045124,0.5235656684,-1.0791396518,0.5635631716,-0.4189672112,-0.974910954,-0.7215952971,0.0133479127,0.4246207283,-0.8292976686,-0.2538542167,-0.5065776828,-0.2099375222,0.5509998361,-0.2959316476,0.774790121,-0.4642370319,-0.2020712628,0.4975604707,0.8462487884,-0.1262302164,0.4272856934,-0.5335618342,-0.480588925,-0.1904648777,0.6658197807,1.3116233801,0.0165694902,-0.5687532594,-0.8639718005,-0.570675792,0.165424769,-0.5178871886,-0.2747167414,-0.0728849129,0.0498075633,-0.5072501599,0.7336544341,-0.181834573,-0.129261157,1.0625515225,0.6800791277,-0.0814054791,0.6410750165,0.1457170474,0.0199139709,-0.6275861294,0.5740881136,-0.2980597239,0.156017722,-0.5805736776,0.1912922241,-0.5805793602,1.6455613084,0.5233135048,0.6962733321,0.7334403256,1.4565573262,0.5792330408,0.086743083,0.1006577074,-1.2913502802,0.7994627434,-0.4591333123,0.5719417396,-0.0691151176,-0.4560601481,0.1203242028,-0.9936023416,0.7713909098,-0.3166371002,0.829016007,-0.6510673879,0.2409052075,1.0345420116,0.1902904171,0.1091024781,-0.1194662415,0.326798472,1.0178123388,3.2652607715,0.3744609324,0.4338197414,-2.7335786182,2.9541306219,-4.7627653982,-1.5804764867,-0.2177447543,-0.4478247367,-1.1342150159,-0.2540143492,0.6897122137,-0.1360227463,0.7900570539,-0.7314563667,0.4770163165,-0.7631910727,-0.4319819438,0.7577698822,0.5706290585,-0.3484477146,0.2062080439,0.3931347155,0.9656573362,0.364572175,0.5654320675,0.3052826855,-0.1486083208,0.3091044963,0.3138595902,0.9986072014,-0.025368011,-0.0410918446,-0.0145086578,-0.7105547393,0.9186754473,-0.1212659326,-0.4542594041,0.4406746948,-0.2731834859,-0.0813552642,-0.1392213558,-0.6143214389,-0.6335338849,-0.784686596,0.4240919788,0.25918375,0.6920909212,-0.3017566394,0.230349346,0.9526795201,0.1923498601,-0.7785195837,0.1146688503,0.0212184832,0.6210633828,-0.4219123416,0.2226964486,1.3140525036,-0.5048336983,-1.1404603523,-0.0607242717,-0.4810208844,0.9569954016,0.364373153,1.2949410062,-0.9858208748,0.0889441657,-0.3140975038,-0.8011415224,-0.4315492056,-0.6223524197,-0.8438724304,0.2733565736,-0.6871491362,0.8826207299,-0.5382077625,0.3291614542,0.8595452457,-0.0776109265,0.4862689932,-0.02729891,-0.263036312,0.940947715,-0.476431896,-3.3738467841,0.1436752258,0.4500788799,0.0544841184,0.0963193646,-0.8857872032,-0.8546477316,-1.4107874295,-3.3202556618,-0.0429139898,-0.2247729597,-1.0621079379,0.8028007964,-1.6172665316,0.9073040484,2.2465345466,-1.0702372677,-0.8286559522,1.8084225936,-1.509186661,-0.0818204471,0.5650449932,-0.8204641794,-0.9837698156,0.0309298497,-0.2490125779,0.2586872722,-0.5355427668,-0.2251256852,0.7403181642,-0.144823067,-0.0552999882,-0.3676110869,-0.247803669,1.0642107076,-0.2137575261,0.3548204676,0.407728537,0.0163938396,0.6004789459,1.1474482165,-0.3527899302,0.9203854387,2.6837618555,0.1016638819,-0.6425390385,1.5730341798,0.4392287742,0.6426865049,2.4070659615,-0.3175610899,0.0107936403,0.0716503296,3.7874616183,2.2467765646,-0.7855204165,1.0218089175,0.0031708126,0.4192186368,0.7510002947,0.5307255849,0.3952866812,-0.9964485481,0.4135731899,-0.3684313026,0.3323517509,0.1713760867,0.3995467724,0.6685035665,0.0590570768,0.4829463774,0.3164045466,0.4082133546,-0.6613698587,0.6829012421,-0.3751637792,0.6577473509,-0.7813127185,-0.6984949,0.2041218531,-0.4420033432,0.0493407078,-1.1169768859,-1.1091156534,0.0825873687,-0.8135584042,-0.377423817,0.4401906854,-0.0667642351,0.3736021955,-2.4637737086,0.2954766491,0.3829026129,0.3530844221,0.3219255957,0.2359769151,-2.2235375186,-0.4742013637,-2.6208411582,0.274842794,-0.4151877509,-0.1931567865,-0.6113009198,-4.3102849435,0.4123582142,0.1841701938,-0.3054339411,-0.5095933725,0.642890198,-0.7698697368,0.1832110756,0.5085547525,-0.3198384781,0.7122553969,0.6333526939,0.3146557796,-0.9203153554,-0.2179079824,-0.3407293038,0.5000911526,-0.112243038,-0.1935063192,-0.2351182614,-0.0844349308,-0.0819326272,-0.7207407691,-0.32193176,0.5402334513,0.1572414527,-0.0343384054,0.2589607867,0.1104057178,0.5165022825,-1.4369483085,0.3481650816,0.0461109109,0.5708183275,-0.3306545117,-0.9100206257,-0.3696229728,0.7237059591,-0.6592603099,0.0308132626,-1.2399690202,0.140125596,-0.3899050305,0.0555764904,0.2112913944,0.2520721484,0.3104417235,0.2988498193,-0.1938609441,0.4779022333,-0.3833508474,0.6340667603,0.907243371,0.41319053,-0.4795495854,0.3413560811,0.4115974886,-0.8810927521,-0.2339658776,-1.1783137473,0.1793550773,-1.026043722,-0.4704594611,-0.2768845381,-0.539944643,0.124453078,0.5635044821,-0.781947024,-0.2529939557,0.0829619901,0.8443014005,1.1405851263,-0.7336514994,0.2258363408,-0.7879100308,0.6458153289,0.1433912708,1.0183070135,-0.0757840243,-0.7301611001,-0.2818071148,-0.1108024858,0.3081558335,0.0687791398,0.5266746258,0.4710659484,-0.7167375349,0.0027995925,-0.8855434608,-0.5240470677,0.5085538606,-0.0753749209,-0.4666734549,0.3573628272,-0.2702471692,0.2651193486,0.8014238248,-0.7011846775,-0.7604134256,-1.3245373482,0.295586509,-0.5340193576,0.1319425756,-0.1207155057,-0.1407865066,-0.7512948278,0.2369401538,-0.3807962936,-0.2037481939,0.5169149292,0.0725699471,-0.7223133696,-0.162101448,0.298917198,0.0331496615,0.9285184958,0.5469722596,0.3308119792,0.0331796887,0.6531958208,0.9909866793,0.9244146561,-0.5320620914,-0.3450536719,-0.1521275563,-0.840684267,-1.060693974,0.763754244,0.5512362297,-0.3753573494,-0.2635665955,-0.5386090565,0.2046080094,0.4703732339,2.5957351318,0.4375559901,-0.0603789768,0.5314109856,0.4809498358,0.405941061,0.5146799771,0.1778584965,-0.2348957645,-0.2635263113,-0.0767434326,0.4367934606,0.1311315815,0.7898005996,-2.4972044543,-0.0202828375,0.2322465751,-0.0431386448,0.0603961285,0.0949024412,-2.6854465909,0.413983404,-0.5570369716,-0.4424696928,-0.8908821601,0.8010351258,0.2615308114,1.0092089311,-0.2947288964,-0.108254375,0.0812118005,-0.0278345474,0.0489253718,-3.2388641584,-3.7476803909,-0.7438660655,0.7968288937,-0.4089164156,-0.4056887906,0.8233907933,0.6579111256,-0.4615750051,-0.5500507422,-0.2899689707,-0.0724875214,0.387155499,0.125851848,-0.2374406463,1.0251534712,-0.6759764964,0.5737982232,-0.0752309801,0.4676166695,0.6255888772,0.4748819765,0.3371808803,-0.7751801203,-0.1231719265,-0.4240567554,0.1170226609,0.5334855446,0.492157648,-0.2695154708,0.4322644547,-0.3445674118,-0.3453630834,0.983221546,-0.4081621585,0.5392797732,0.2354052706,-0.7102596114,0.718810099,0.6731916425,0.1711852023,-0.7415304425,-0.3265585352,-0.3540407782,0.4191932579,0.0242153364,-0.2855076978,0.8264821009,0.1082773821,0.1882303915,-1.0475842789,0.4835139532,-0.098190542,0.2887183715,-0.395757701,-0.0920539051,0.2801214599,-0.7863177423,-0.0597384237,-0.0004184762,-2.0693603525,0.1142705715,-0.1409851749,-0.1697346244,1.0844081666,-0.3715778226,-0.2618554201,0.5167370636,0.5793828073,-0.6076542391,0.9361303735,-0.6641304675,-0.359689071,0.6030641591,0.826570965,-0.2061588184,-0.1296983795,0.295299521,1.1036521181,0.0384537331,0.6837038252,-0.499545663,0.1661729591,2.1329373675,0.6107340933,0.1781557538,0.0060186137,-0.6672367142,-0.5334118438,-0.5728570024,-0.9309733941,-0.363495508,0.0758615844,0.0320096004,-0.8382944837,1.8068897748,-0.6375264236,-0.3342938817,0.5339904301,-1.0132606625,0.1147109425,1.4203015518,-0.2240970045,-0.366385442,0.2292483522,0.1096523642,1.1857074096,-0.7409855267,0.2617180461,-0.5594637528,-0.6108837651,-0.6325353375,-0.0848368355,0.5134513211,0.2539622706,-0.3381998222,0.0656819798,0.0230551448,-0.068920517,3.0041210465,3.0835830661,0.4900787263,1.0361928976,-0.0610176295,-0.1370937235,0.0268135149,-0.0956029801,0.7374461635,-0.1369175336,0.3327505582,0.5445880989,0.659370356,0.6354724131,0.1450456455,0.188743508,0.9651251005,-0.4089027252,2.5447409223,-2.6887109423,-3.1476562208,0.1848355534,-1.5996011818,0.1267904178,-0.0978011852,0.8426331989,0.3796412455,-0.0755608654,-0.3617550469,-0.5342514201,-0.3431408702,0.8576538071,-0.5867304683,0.3652658248,-0.2861207055,-0.0390328534,-0.7321896628,0.5169321945,-0.8159500934,-0.2259131325,-0.4655193794,-0.7281103117,0.0230156721,0.7680008075,-0.7903371165,0.0446460762,0.8597431488,-0.5021400863,0.4719864406,-0.161806222,-0.335309603
biasActivation=1,1,1
[BASIC:ACTIVATION]
"org.encog.engine.network.activation.ActivationSigmoid"
"org.encog.engine.network.activation.ActivationSigmoid"
"org.encog.engine.network.activation.ActivationLinear"
