encog,BasicNetwork,java,3.4.0,1,1669199463023
[BASIC]
[BASIC:PARAMS]
[BASIC:NETWORK]
beginTraining=0
connectionLimit=0
contextTargetOffset=0,0,0
contextTargetSize=0,0,0
endTraining=2
hasContext=f
inputCount=6
layerCounts=2,101,7
layerFeedCounts=1,100,6
layerContextCount=0,0,0
layerIndex=0,2,103
output=0,1,0,0,0,0,0,0,0,0,0,0,0,0,0,0,0,0,0,0,0,0,0,0,0,0,0,0,0,0,0,0,0,0,0,0,0,0,0,0,0,0,0,0,0,0,0,0,0,0,0,0,0,0,0,0,0,0,0,0,0,0,0,0,0,0,0,0,0,0,0,0,0,0,0,0,0,0,0,0,0,0,0,0,0,0,0,0,0,0,0,0,0,0,0,0,0,0,0,0,0,0,1,0,0,0,0,0,0,1
outputCount=1
weightIndex=0,101,801
weights=-0.4773470281,-0.0804864099,0.9396583023,0.3505489301,-0.3633984343,0.2926799786,0.875556665,4.1637755587,-0.8212113611,0.7543206639,0.3523483076,-0.3272613982,0.3058331169,-0.4373038788,1.52501476,0.3793433034,0.7093583728,-0.7860726045,0.2588455154,-0.2535053608,0.3717068683,-0.8790896809,-0.6074761472,0.8974250722,-0.636082876,-1.2364360131,-0.7541145459,-1.0131950486,0.8083867635,-0.4098049963,-0.8615218392,0.6759020856,0.7939573153,0.0888797489,-0.0833854926,0.4981024943,-0.2186711593,0.9892148431,0.1118025642,2.1570076791,-0.1864514689,0.8050511349,-0.2084089216,0.8457092704,-0.5399997031,-0.1221651166,0.6818044711,-1.0399324615,0.6645719834,-0.0509561493,-0.0661529666,0.9711957606,0.4030478318,-0.5037203474,-0.8598168278,-0.0608943884,-0.9372560795,0.5073839031,-4.9067571101,0.1921095636,-0.9891149897,0.9022229204,-0.1264397116,-0.6145111695,-0.6504617272,0.666840891,0.6146691484,0.5718821534,-0.8291106889,-0.5837694836,0.0954922272,-0.2121198025,-0.2706598433,0.6972150603,0.6113967396,-0.9800470863,0.0567412286,-0.2451057467,0.5522118093,0.5164292725,2.4980608664,-1.4573975984,0.1916304446,0.4735849228,-0.8499814044,-0.7269060962,-0.2165253758,0.2033674999,-0.3202279415,-0.4433059338,-0.1530369922,-1.6476584,0.5385185542,-0.6914364044,-0.8982792595,-2.3767888446,0.2023544155,-0.3448347592,1.8299270105,0.9597194475,0.1216040762,-0.13230018,-0.0826758487,0.4133590881,-0.5505431389,-0.0955206706,-0.7210280748,-0.2712389186,0.1612166939,0.4205775577,-0.9121656459,0.1414161328,0.531834149,0.0497273658,0.5017735194,0.0702017096,-0.0152243994,0.4693907993,-0.6503230258,0.4278644555,0.6379614745,-0.0738649546,0.8649365845,0.2773893077,0.5174124116,-0.0549278526,-0.6292101,-0.0159959807,-0.3823201312,-0.8869845743,0.3992517434,0.9750943288,-0.3940798221,0.9836698962,-0.571033558,0.2729604189,0.4882510471,-0.0185718368,0.5990541052,-0.3611904072,-0.1548182061,0.5294807223,0.9687785355,0.7016372425,-1.8303002308,0.9257207759,-0.8282539168,-1.1754000112,-0.7187400763,-0.5384406129,0.3924752902,-0.2600112749,0.6744680062,-2.7641251285,2.7506343586,-0.8636475485,-0.6707816479,0.8289306511,-0.441727621,-0.175962549,0.0580201327,0.7478962153,-0.6162605479,0.1966984588,0.3055178267,-0.4979625171,-1.5121037073,0.4676457207,0.8108092339,-0.5702918399,0.4480538968,-0.8765782333,0.3162969586,0.711764943,-0.1619482369,-0.0289319385,-0.1236971247,0.4325845067,-0.3008421776,0.3553573487,0.7273655196,0.2368004068,-0.2075443477,0.8465090451,0.1561199311,-0.4977437062,-0.1960994161,0.0957964673,1.1311219429,0.5253861372,0.0857789908,0.6556338556,9.2554179911,-33.1635699217,0.9247395743,3.1650664062,-1.794235967,0.6499072237,-4.3038197633,1.5693227035,0.6559111822,-0.2312609532,1.4404704316,-0.0786822007,0.5359664188,-0.590163731,-0.1600002619,-0.5577618069,0.1199130954,-0.1588807611,0.720948748,-0.6144970331,-0.7121022355,0.0050185304,-0.074749586,0.7602004292,0.1742392495,0.2004641041,0.4060265198,-0.5186125777,-0.9726226372,1.8286001213,0.270807524,-0.4711903648,0.9670040924,0.8864711747,-1.5367139615,-0.849800467,-0.7130547296,0.0052668131,-0.2737084556,0.1935852788,0.6561323254,0.9501512908,-0.663863103,0.8714760692,0.0218194609,0.3495234193,0.5857187605,0.7315378472,0.1811053365,22.9918147281,-10.837947494,-10.8415131584,-1.3077676339,0.7591427271,-0.2040822441,6.2803866999,0.2609059396,0.5006733175,0.2734946757,1.4976086458,0.5834026896,-0.8029088375,-0.2052236034,-0.2005383392,-0.0917396286,0.9421359815,-0.535871865,0.3425713219,-0.1819869094,-0.0284786897,-0.6938491287,0.0507381784,-0.2574862906,0.685334785,-0.7263053331,-0.9538395315,0.1778453894,-1.4347411993,0.6562817727,-0.6820607166,0.3702087968,0.4205234494,0.0975942193,-0.7619716031,3.2576897729,0.7227979472,0.8474305995,1.012645409,0.6352475353,-0.5903583021,-0.8338209261,-1.8870500836,0.4916753463,0.5839944691,-0.9347699284,0.7730446188,-0.2246716615,0.942644243,-0.768430318,-0.8652130072,0.8862155629,-0.7074437954,0.3209479339,0.6753594956,0.6193115136,-0.1996170491,-0.2707074339,-0.7941088747,0.5497605317,-0.5871500369,-0.866021673,0.1290645887,-1.9686412079,0.0705385899,0.6299538759,-0.3550706034,0.4418487329,-0.3062001775,0.555324629,0.4847107911,1.0366326994,-0.1580732699,-0.2320325506,0.217093587,0.877791426,0.1944962161,1.1069102375,0.6456673157,0.3294708256,-0.069794813,-0.0172003358,0.0481749971,-0.2409259182,0.9267005227,-0.2249894021,-0.5515016037,0.2214727655,0.529224577,-0.2931568696,0.6508088286,-0.0579664247,0.6302752263,0.8886368757,0.2613187472,-0.3736553356,0.4945260042,0.5197172346,0.6041213419,1.0113287439,-0.3487310955,-0.5721145402,-0.0453973835,-0.8598549645,0.5004304152,-0.3466679445,0.3504076641,0.1146261669,-0.4765242219,0.7790831855,0.5424318435,-0.5516848854,-1.3543418631,-0.7875439034,-0.0506152899,0.2032380125,0.8322615946,0.2357013412,0.5142418169,4.8151216606,-5.2750588165,0.5225210165,0.6310631203,-0.5098195263,0.5548042484,-1.2802837085,0.9139122178,-0.655173505,0.5971858837,-0.3343600089,-0.7532956606,-0.3808884735,-0.5153478115,-0.6819472524,0.5505652473,1.8524581622,-1.3238945783,0.2071126224,-0.5210931262,-0.9128787755,-0.3523711775,-0.4775936495,0.4500695265,-0.3387583718,-0.4478541324,0.4245640107,-0.5873443208,2.2071283902,0.0436818338,0.8166222554,0.3293976274,-0.6011859982,0.1774056549,0.9701061814,-0.300588814,-0.5202744813,-0.7370664193,-1.0710729686,-0.3402092018,-0.2630230789,0.3740940886,0.7474202174,0.398328488,-0.6637405744,-0.5934986384,-0.3160786861,0.8535581046,-0.2914456777,-1.6595902307,0.6457061997,0.7034175116,0.0548345462,0.776217532,-0.1529527151,-0.0097721158,-0.8135104076,0.9077927951,-0.3697364123,-0.3766664295,0.524110091,0.7163288243,-0.6547099712,-0.7875272546,-0.3771868672,-0.1321720295,0.2231811689,0.7898520939,0.5468723954,0.5819925937,0.080466378,-0.095687242,1.8628988138,3.1854896688,1.5037752606,-1.9723770211,-0.0231821503,-1.346613577,2.8589963157,-0.7401448002,6.8779000834,-2.3041280091,1.8465356269,-0.3402746424,0.3986837597,-0.5054055298,0.5147258775,-0.8716351069,-0.8809936603,-0.6178342945,-0.5886822834,-0.0339198772,0.0812190506,0.3091730879,-1.0835972466,-0.1656011103,0.6661573694,0.6448731292,-0.1015981802,-2.5757760197,0.4806621405,-0.1847705123,0.7947913076,0.8747038677,0.8324539992,-0.7707862255,0.3756459641,-0.3814590361,-0.3048925734,0.4755887677,-0.0287771879,0.3824620284,-1.0769265585,-0.5979846311,0.7393394796,-0.6643625814,0.4399360947,0.1905876086,0.8143638226,-0.7538217218,0.6095831627,0.7483078451,-0.2619870477,0.2741998616,-0.0204962591,0.6640945635,-0.7697880259,0.1198014389,0.3319566382,0.5134299073,0.5379063896,0.6624195647,-0.2819520138,-1.2571924524,0.5377372626,0.9334255247,0.2237268107,0.4848014439,0.6696241463,-0.6731910521,-0.4599993261,-0.6123240341,0.6348253718,-1.8457007467,-0.2066648784,1.0054612672,-0.1093732614,18.5951233501,-0.4782484331,-1.0600654126,-0.6660081679,0.0999356552,-0.1438422864,6.7935514485,0.7334814694,0.0709987679,0.3065659998,1.1548474514,-0.0737179324,0.2984880835,-0.4206859232,0.1988348205,-0.7674451834,-0.5391816297,0.3162610748,-0.972908013,-0.737228724,0.2853701223,0.7047856436,-0.4652425665,0.0735269087,0.6019893883,-0.5716858082,-0.2367196211,0.4574649218,-0.7602899743,-0.2007084603,0.1216022062,0.4043525113,0.449588802,0.6883227939,0.1237582453,-0.889445507,0.2497515918,-0.4520877,0.1736332145,0.9638219341,0.1687945558,-0.4059309717,2.7756398611,0.4861840077,2.0870628012,0.6681179615,0.1294659073,0.220739539,-0.2876056466,0.4233966934,-0.9202531417,-0.0768128323,0.0740584208,0.4870126906,-0.3630353463,-0.52066235,-1.4105598575,-0.3812728387,3.2571047422,0.618748448,-1.1492417289,-0.8059893013,-0.4961675942,1.1105971155,0.6131416429,-0.4508344937,1.0141609597,-0.5397041029,-0.3961098012,-0.8572257505,-0.0012158838,0.9197898015,-0.8597152974,0.4996691174,0.8136619319,0.2789619822,0.3874641823,-0.4912527125,-0.5670407129,0.4861483764,0.06167148,0.048894753,0.7851424436,0.3772424414,1.7725782211,0.1583106468,0.3210501275,1.5767793377,-0.827583022,0.4904034972,-0.4159431794,1.0373666213,-0.4626035498,-0.1027489754,0.4994422192,-0.7169040717,-0.2435667693,0.3849245749,0.1283502118,0.8753743516,-0.9388324336,-0.69811304,0.6891223445,0.2908558499,0.2018725319,1.1031734326,-0.717747835,-0.0629265103,0.2221286957,-0.7938054366,-0.6775318563,0.7382837448,-0.0577394148,0.8620275156,0.4544888188,0.4792826021,0.7926518523,-0.1179478818,-1.0028590932,-0.8842908637,0.7071349004,-0.5367355392,-2.0768212205,-0.4738343058,-0.9725043425,0.9615863248,0.2761944186,0.305709681,1.092523507,0.2372795317,0.3254603754,0.6910253051,0.1888237375,-1.0900079921,-0.8883099527,0.0679247848,0.0494300797,0.0619776214,0.3744820605,0.1966262343,2.6341868209,-1.1874316008,0.2520820002,1.1834767051,0.2527196436,0.5959893737,0.0980304643,-0.7984587978,0.0309775276,-0.2060378576,-0.568251691,-0.1058559946,0.5881553891,0.8088277601,4.7221627484,-0.1430245437,-0.6224033238,1.1470412763,-1.120000498,0.7274611532,1.2522047515,-41.1438320337,4.6211019467,2.8631365507,2.5262801315,-0.9377401222,0.9054692731,-11.4859512966,2.5869403942,-7.7279890922,-16.8569059419,-0.149551321,1.1328084394,-1.9994152433,1.9956344417,0.1552638272,-0.1042094078,0.8591627373,0.9165285457,-0.0646499987,-0.3655319701,0.5044132508,-1.0759817156,-0.0798464128,0.6105459903,-0.2235497397,0.4291159146,-0.4334901697,0.4264110393,-0.6917807868,-0.1215900939,0.2262983612,0.0634155959,0.2092867605,0.8699675489,0.2628365626,0.3793376857,0.1454925623,0.7364586825,-0.5852089281,0.9909328391,0.3014756646,-0.8432730632,1.5784645846,-0.8835948216,-0.4642277573,1.2122596806,-0.0253967339,0.4223071077,0.0257979689,-1.1497545721,0.4079356256,0.0377124993,-0.4786098022,0.8793491225,-0.3316907019,0.8178309909,0.0005765963,0.2200964643,-0.1580750053,0.2175787067,-0.9007077694,0.5362711748,0.8096974453,0.1013183735,0.2534415422,-0.9659491296,-0.4556979095,1.0409146024,-0.8332003557,0.9779569796,-0.0171213154,-0.0207360371,3.5331725837,-10.0403954282,4.3610829005,-1.8887243037,-0.5707366779,-0.3194146404,-0.6808255474,0.4114235626,-0.6678023764,0.2623092626,0.6847499823,-0.0580101631,-0.4676840275,0.5416205086,0.2340316897,0.1290345233,0.1131169404,0.6006841156,-0.6310578277,-22.8034170819,-9.2314228587,1.8759837314,1.0542278772,-0.1158733734,0.0662689258,-11.0014748158,11.3405135629,-1.1182644656,0.1407116548,-0.5128250083,0.4320290081,-0.1071061127,0.1202862556,0.1521836647,-0.7428405141,0.4929770307,-0.2207786644,-0.8192846277,-1.1744932565,-0.0358751517,2.2866489321,-0.9801063974,-0.8892732157,0.3085780653,-0.8400186574,1.0061494557,-0.3379234072,-0.0311567512,0.5287229611,0.2823564506,4.6945619072,1.0573269384,-0.7243723923,-1.4718707512,-1.0181702525,0.7019196501,-0.6961552953,-0.0088610743,-0.6650488184,-0.4040281498,0.5823840435
biasActivation=1,1,1
[BASIC:ACTIVATION]
"org.encog.engine.network.activation.ActivationSigmoid"
"org.encog.engine.network.activation.ActivationSigmoid"
"org.encog.engine.network.activation.ActivationLinear"
